{
    "E028": {
        "weights": [
            [
                0.11205613613128662,
                -0.03115784004330635,
                0.03693430870771408,
                -0.06286091357469559,
                0.17687371373176575
            ],
            [
                -0.42475613951683044,
                0.03839604929089546,
                0.15268781781196594,
                0.020496279001235962,
                -0.1206146851181984
            ]
        ],
        "bias": [
            0.24705366790294647,
            -0.2646121382713318
        ]
    },
    "E050": {
        "weights": [
            [
                0.16253086924552917,
                0.08224251121282578,
                0.14177702367305756,
                -0.24544546008110046,
                0.04321121796965599
            ],
            [
                -0.17757916450500488,
                0.12503604590892792,
                0.13163313269615173,
                -0.21592219173908234,
                -0.21315746009349823
            ]
        ],
        "bias": [
            0.09389160573482513,
            -0.13176217675209045
        ]
    },
    "E113": {
        "weights": [
            [
                0.3201126754283905,
                0.016955148428678513,
                -0.07142537832260132,
                -0.06917507946491241,
                0.16661043465137482
            ],
            [
                -0.2929041385650635,
                0.03516893833875656,
                -0.0422329381108284,
                0.02408171258866787,
                -0.39171311259269714
            ]
        ],
        "bias": [
            0.16819298267364502,
            -0.35872727632522583
        ]
    },
    "E117": {
        "weights": [
            [
                0.5228807330131531,
                -0.19796022772789001,
                -0.03093940019607544,
                -0.038615383207798004,
                0.1757781207561493
            ],
            [
                -0.2979620099067688,
                0.2361830770969391,
                -0.02856198325753212,
                0.08544065803289413,
                -0.2618268132209778
            ]
        ],
        "bias": [
            0.32335740327835083,
            -0.07030318677425385
        ]
    },
    "E037": {
        "weights": [
            [
                0.4949859082698822,
                -0.1340114176273346,
                0.04826991632580757,
                -0.1274661123752594,
                0.03003847971558571
            ],
            [
                -0.21342141926288605,
                -0.09790073335170746,
                0.16252529621124268,
                -0.05133899301290512,
                -0.17031577229499817
            ]
        ],
        "bias": [
            0.11319968849420547,
            0.03325391560792923
        ]
    },
    "E056": {
        "weights": [
            [
                0.0624266043305397,
                -0.08879563957452774,
                0.1459200382232666,
                -0.0664435476064682,
                0.17696034908294678
            ],
            [
                -0.39997950196266174,
                0.11250396072864532,
                0.14227977395057678,
                0.028065457940101624,
                -0.24212107062339783
            ]
        ],
        "bias": [
            -0.012383967638015747,
            -0.05394710227847099
        ]
    },
    "E013": {
        "weights": [
            [
                0.20134803652763367,
                0.007528448011726141,
                0.19317707419395447,
                0.01831681653857231,
                0.07781989872455597
            ],
            [
                -0.3150336444377899,
                0.19894428551197052,
                0.11859679222106934,
                0.02919243648648262,
                -0.10018724203109741
            ]
        ],
        "bias": [
            0.40200304985046387,
            -0.08422761410474777
        ]
    },
    "E096": {
        "weights": [
            [
                0.19341722130775452,
                0.08524131774902344,
                -0.010027050971984863,
                0.00440278509631753,
                0.09926096349954605
            ],
            [
                -0.1870938241481781,
                0.14872810244560242,
                0.11362068355083466,
                0.02609149180352688,
                -0.1810654252767563
            ]
        ],
        "bias": [
            0.3014433681964874,
            -0.11401184648275375
        ]
    },
    "E094": {
        "weights": [
            [
                0.3810563385486603,
                -0.06011274456977844,
                0.05819299817085266,
                -0.16453765332698822,
                0.1946870982646942
            ],
            [
                -0.25890469551086426,
                0.0010265111923217773,
                0.005389737896621227,
                -0.09953074157238007,
                -0.1880088746547699
            ]
        ],
        "bias": [
            0.07330242544412613,
            -0.3271595537662506
        ]
    },
    "E054": {
        "weights": [
            [
                0.35376864671707153,
                0.07419619709253311,
                -0.009119665250182152,
                0.10848154872655869,
                0.008378537371754646
            ],
            [
                -0.17103269696235657,
                0.09324058890342712,
                -0.009533572010695934,
                0.13328945636749268,
                -0.11530765146017075
            ]
        ],
        "bias": [
            0.1574060618877411,
            -0.13512694835662842
        ]
    },
    "E011": {
        "weights": [
            [
                0.16807201504707336,
                0.011061891913414001,
                0.010379155166447163,
                -0.11501981317996979,
                0.1386096030473709
            ],
            [
                -0.06672756373882294,
                0.015033123083412647,
                0.14356498420238495,
                -0.1251462996006012,
                0.023760583251714706
            ]
        ],
        "bias": [
            0.1044607013463974,
            -0.05749305337667465
        ]
    },
    "E128": {
        "weights": [
            [
                0.4008197784423828,
                -0.009764334186911583,
                0.026311296969652176,
                0.046007268130779266,
                0.13447584211826324
            ],
            [
                -0.05780429393053055,
                0.11846025288105011,
                0.03536919131875038,
                0.11129013448953629,
                -0.23113803565502167
            ]
        ],
        "bias": [
            0.06613702327013016,
            -0.31141960620880127
        ]
    },
    "E070": {
        "weights": [
            [
                0.3057665228843689,
                0.12851738929748535,
                0.03981632739305496,
                -0.019937362521886826,
                0.13484618067741394
            ],
            [
                -0.09471248090267181,
                -0.0591266043484211,
                -0.09310166537761688,
                0.03108902834355831,
                0.05672120302915573
            ]
        ],
        "bias": [
            0.1427207887172699,
            -0.04386061429977417
        ]
    },
    "E016": {
        "weights": [
            [
                0.0156207624822855,
                0.004539841320365667,
                -0.09985844790935516,
                -0.04107579588890076,
                0.0879649743437767
            ],
            [
                -0.11119072139263153,
                -0.049839168787002563,
                -0.21979022026062012,
                -0.0013134598266333342,
                -0.21184471249580383
            ]
        ],
        "bias": [
            0.0028973668813705444,
            -0.026695918291807175
        ]
    },
    "E053": {
        "weights": [
            [
                0.3106629252433777,
                0.19169814884662628,
                0.09436211735010147,
                -0.10823257267475128,
                0.010834922082722187
            ],
            [
                -0.1449699103832245,
                0.12242956459522247,
                0.0997282862663269,
                -0.06689339131116867,
                0.07185421139001846
            ]
        ],
        "bias": [
            0.18937596678733826,
            0.05460608750581741
        ]
    },
    "E112": {
        "weights": [
            [
                0.14781829714775085,
                0.12148668617010117,
                0.05118830129504204,
                -0.056542180478572845,
                0.10189028829336166
            ],
            [
                -0.07184720039367676,
                0.06399896740913391,
                0.1347803771495819,
                -0.03929707407951355,
                -0.21140773594379425
            ]
        ],
        "bias": [
            0.13386891782283783,
            -0.2796165347099304
        ]
    },
    "E109": {
        "weights": [
            [
                0.07541840523481369,
                0.15350735187530518,
                -0.056496404111385345,
                0.03780749440193176,
                -0.020151741802692413
            ],
            [
                -0.2305624932050705,
                -0.10053648799657822,
                0.03577622398734093,
                0.09069578349590302,
                -0.20695774257183075
            ]
        ],
        "bias": [
            0.37538614869117737,
            -0.12579445540905
        ]
    },
    "E055": {
        "weights": [
            [
                0.09374325722455978,
                0.12905354797840118,
                -0.1458623856306076,
                0.06388312578201294,
                0.16196195781230927
            ],
            [
                -0.1538727879524231,
                0.11870374530553818,
                -0.08424971997737885,
                0.08754394203424454,
                -0.20685975253582
            ]
        ],
        "bias": [
            0.15796571969985962,
            -0.1154380813241005
        ]
    },
    "E095": {
        "weights": [
            [
                0.41841229796409607,
                0.0037131537683308125,
                -0.10431881994009018,
                -0.1156025156378746,
                0.1513952910900116
            ],
            [
                -0.05139338970184326,
                0.016309620812535286,
                -0.016230415552854538,
                -0.07724261283874512,
                -0.03638339415192604
            ]
        ],
        "bias": [
            0.09043759852647781,
            -0.07341790199279785
        ]
    },
    "E114": {
        "weights": [
            [
                0.38052910566329956,
                0.013657599687576294,
                0.024722617119550705,
                -0.04143519327044487,
                -0.04186177998781204
            ],
            [
                -0.1341794729232788,
                0.06868455559015274,
                -0.040269605815410614,
                0.02730662189424038,
                -0.07745299488306046
            ]
        ],
        "bias": [
            0.004318272229284048,
            -0.36442679166793823
        ]
    },
    "E071": {
        "weights": [
            [
                0.11066506057977676,
                0.012263725511729717,
                -0.005774313118308783,
                -0.006035180296748877,
                0.1648135781288147
            ],
            [
                -0.2388216257095337,
                0.0903342142701149,
                0.08027063310146332,
                -0.0004695788084063679,
                -0.1447870433330536
            ]
        ],
        "bias": [
            0.1014816164970398,
            -0.35569971799850464
        ]
    },
    "E116": {
        "weights": [
            [
                0.3978884816169739,
                -0.026603583246469498,
                0.02484777197241783,
                -0.04670014604926109,
                -0.023480867967009544
            ],
            [
                -0.28576725721359253,
                0.06419949233531952,
                -0.06658829003572464,
                0.17895379662513733,
                -0.03434541076421738
            ]
        ],
        "bias": [
            0.26704835891723633,
            -0.07980667054653168
        ]
    },
    "E097": {
        "weights": [
            [
                0.26098817586898804,
                0.03768414258956909,
                0.005903382785618305,
                -0.06448335200548172,
                0.1587408483028412
            ],
            [
                -0.2904737591743469,
                0.04140070080757141,
                -0.07095952332019806,
                -0.035529136657714844,
                0.09781868755817413
            ]
        ],
        "bias": [
            0.23648154735565186,
            -0.17700758576393127
        ]
    },
    "E012": {
        "weights": [
            [
                0.08296294510364532,
                -0.24121351540088654,
                0.14538542926311493,
                -0.046827562153339386,
                0.062196873128414154
            ],
            [
                -0.012866185978055,
                -0.1597224473953247,
                0.1257665753364563,
                -0.01569150947034359,
                -0.08749557286500931
            ]
        ],
        "bias": [
            0.19501842558383942,
            -0.3262236714363098
        ]
    },
    "E057": {
        "weights": [
            [
                0.163910910487175,
                -0.17025144398212433,
                -0.1632860153913498,
                -0.17733308672904968,
                0.05645056441426277
            ],
            [
                -0.2128440886735916,
                0.07681310176849365,
                -0.14251528680324554,
                -0.1054665669798851,
                -0.11407599598169327
            ]
        ],
        "bias": [
            0.2568967640399933,
            0.08056081086397171
        ]
    },
    "E066": {
        "weights": [
            [
                0.07130483537912369,
                -0.029864853248000145,
                -0.09921709448099136,
                0.020513076335191727,
                -0.0047783576883375645
            ],
            [
                -0.4207037389278412,
                0.0020515064243227243,
                -0.04343605414032936,
                0.07220838963985443,
                -0.09157965332269669
            ]
        ],
        "bias": [
            0.36271873116493225,
            -0.06204713508486748
        ]
    },
    "E007": {
        "weights": [
            [
                0.23640227317810059,
                -0.008436078205704689,
                0.05833030864596367,
                -0.0052493540570139885,
                0.25794607400894165
            ],
            [
                -0.3106159269809723,
                0.10194791853427887,
                0.05148015171289444,
                0.08634427934885025,
                -0.09156312048435211
            ]
        ],
        "bias": [
            0.18994726240634918,
            -0.18035916984081268
        ]
    },
    "E082": {
        "weights": [
            [
                0.02416377142071724,
                -0.08875624090433121,
                0.22985729575157166,
                -0.023665374144911766,
                0.1484815925359726
            ],
            [
                -0.1986229121685028,
                -0.01684044860303402,
                0.09411749988794327,
                0.014821994118392467,
                -0.08196421712636948
            ]
        ],
        "bias": [
            0.1484885960817337,
            -0.11068148910999298
        ]
    },
    "E127": {
        "weights": [
            [
                0.13858363032341003,
                -0.07060359418392181,
                -0.11125846207141876,
                -0.07065798342227936,
                0.06521698087453842
            ],
            [
                -0.32128509879112244,
                0.02732323482632637,
                -0.09769735485315323,
                -0.011382617056369781,
                -0.062070321291685104
            ]
        ],
        "bias": [
            0.0038385808002203703,
            -0.28849849104881287
        ]
    },
    "E038": {
        "weights": [
            [
                0.5813456773757935,
                -0.127487450838089,
                -0.06365146487951279,
                -0.018175285309553146,
                0.01133777480572462
            ],
            [
                -0.1971813589334488,
                -0.038239531219005585,
                0.009529602713882923,
                0.07484184950590134,
                -0.15475741028785706
            ]
        ],
        "bias": [
            0.07697787880897522,
            -0.09426575899124146
        ]
    },
    "E118": {
        "weights": [
            [
                0.22221510112285614,
                0.07115636020898819,
                -0.00601388793438673,
                0.1392541527748108,
                0.07921390235424042
            ],
            [
                -0.25427013635635376,
                0.10990229994058609,
                0.05493663623929024,
                0.2135167419910431,
                -0.0472685880959034
            ]
        ],
        "bias": [
            0.16090621054172516,
            -0.18905290961265564
        ]
    },
    "E005": {
        "weights": [
            [
                0.04453401640057564,
                0.057757116854190826,
                -0.044453881680965424,
                -0.14557991921901703,
                -0.00832146592438221
            ],
            [
                -0.23155450820922852,
                0.10485434532165527,
                0.08155377209186554,
                -0.08248016983270645,
                -0.37497732043266296
            ]
        ],
        "bias": [
            0.08180677890777588,
            0.02517116069793701
        ]
    },
    "E059": {
        "weights": [
            [
                0.24143874645233154,
                -0.07505248486995697,
                -0.005461642052978277,
                -0.14187869429588318,
                0.22222168743610382
            ],
            [
                -0.3458493649959564,
                0.07815767824649811,
                0.13779422640800476,
                -0.023735862225294113,
                0.12237226963043213
            ]
        ],
        "bias": [
            0.047978390008211136,
            -0.228084996342659
        ]
    },
    "E105": {
        "weights": [
            [
                0.20298464596271515,
                -0.07483302056789398,
                -0.03762378916144371,
                -0.07944177091121674,
                0.22612304985523224
            ],
            [
                -0.4461047053337097,
                0.03396891430020332,
                0.06361807137727737,
                -0.06275366991758347,
                -0.15403741598129272
            ]
        ],
        "bias": [
            0.06641148775815964,
            -0.12369028478860855
        ]
    },
    "E079": {
        "weights": [
            [
                0.22037485241889954,
                0.1379214972257614,
                0.035078324377536774,
                -0.09892241656780243,
                -0.014217311516404152
            ],
            [
                -0.18986138701438904,
                -0.06550441682338715,
                -0.03347717598080635,
                -0.04335891455411911,
                -0.23352022469043732
            ]
        ],
        "bias": [
            0.04842609167098999,
            -0.20455506443977356
        ]
    },
    "E084": {
        "weights": [
            [
                0.045321740210056305,
                -0.07844890654087067,
                -0.05101332068443298,
                0.06572067737579346,
                -0.02605041302740574
            ],
            [
                -0.1789255142211914,
                0.03178795054554939,
                -0.012416970916092396,
                0.04175969213247299,
                -0.1393551528453827
            ]
        ],
        "bias": [
            0.09952513128519058,
            -0.1802631914615631
        ]
    },
    "E003": {
        "weights": [
            [
                0.015263472683727741,
                -0.061055779457092285,
                -0.09229681640863419,
                0.055629879236221313,
                0.18990834057331085
            ],
            [
                -0.13139507174491882,
                -0.08403800427913666,
                0.03642495349049568,
                0.07619456946849823,
                0.06496918946504593
            ]
        ],
        "bias": [
            0.25221818685531616,
            -0.24564632773399353
        ]
    },
    "E123": {
        "weights": [
            [
                0.24196335673332214,
                -0.09676124900579453,
                0.03230137377977371,
                -0.060094475746154785,
                0.1542508751153946
            ],
            [
                -0.3560020625591278,
                0.12676113843917847,
                0.05737423896789551,
                0.13466070592403412,
                -0.15536585450172424
            ]
        ],
        "bias": [
            0.07698983699083328,
            -0.1968296468257904
        ]
    },
    "E062": {
        "weights": [
            [
                0.09082238376140594,
                -0.0010826473589986563,
                -0.07008751481771469,
                -0.1136605516076088,
                0.16754691302776337
            ],
            [
                -0.2703130841255188,
                0.040869321674108505,
                0.07634224742650986,
                -0.06724949181079865,
                -0.13938960433006287
            ]
        ],
        "bias": [
            0.26158544421195984,
            -0.023294800892472267
        ]
    },
    "E027": {
        "weights": [
            [
                0.12770113348960876,
                -0.09245352447032928,
                0.0504097118973732,
                -0.0829913467168808,
                0.03231557458639145
            ],
            [
                -0.180362269282341,
                0.02920961007475853,
                -0.047737300395965576,
                -0.030142372474074364,
                -0.12754444777965546
            ]
        ],
        "bias": [
            0.018804237246513367,
            -0.1124669536948204
        ]
    },
    "E004": {
        "weights": [
            [
                -0.05336359888315201,
                0.005932366941124201,
                0.13911756873130798,
                -0.05171238258481026,
                0.08712664246559143
            ],
            [
                -0.2815597355365753,
                -0.13079501688480377,
                0.01727590709924698,
                0.10152614116668701,
                -0.06827124208211899
            ]
        ],
        "bias": [
            0.2917277216911316,
            -0.09713519364595413
        ]
    },
    "E119": {
        "weights": [
            [
                0.39517533779144287,
                -0.004694110248237848,
                -0.025716546922922134,
                -0.1998053640127182,
                0.1257990002632141
            ],
            [
                -0.3860514461994171,
                0.1253238320350647,
                0.0064368643797934055,
                -0.1583700180053711,
                -0.04937293007969856
            ]
        ],
        "bias": [
            0.20173926651477814,
            -0.24186637997627258
        ]
    },
    "E100": {
        "weights": [
            [
                0.5490891337394714,
                -0.0335126593708992,
                -0.046716999262571335,
                -0.18159571290016174,
                0.22016875445842743
            ],
            [
                -0.4248543679714203,
                0.19606006145477295,
                0.039488352835178375,
                -0.08262382447719574,
                -0.4462885856628418
            ]
        ],
        "bias": [
            0.10418643802404404,
            -0.31051287055015564
        ]
    },
    "E058": {
        "weights": [
            [
                0.2423519641160965,
                -0.10131798684597015,
                0.06374964863061905,
                -0.044219523668289185,
                0.03558903560042381
            ],
            [
                -0.11441539227962494,
                0.02061408758163452,
                0.13337430357933044,
                -0.012856259942054749,
                -0.32237035036087036
            ]
        ],
        "bias": [
            0.20211628079414368,
            -0.08242975175380707
        ]
    },
    "E098": {
        "weights": [
            [
                0.30592718720436096,
                -0.07331034541130066,
                -0.1261288821697235,
                -0.14059773087501526,
                0.1902003288269043
            ],
            [
                -0.41603127121925354,
                -0.1005471795797348,
                -0.06314943730831146,
                -0.11107957363128662,
                -0.16201730072498322
            ]
        ],
        "bias": [
            0.28263774514198303,
            -0.23604540526866913
        ]
    },
    "E065": {
        "weights": [
            [
                0.0661875382065773,
                -0.11842668056488037,
                0.0018705471884459257,
                0.05726064369082451,
                0.14195597171783447
            ],
            [
                -0.24930477142333984,
                0.07776244729757309,
                0.09033364802598953,
                0.07408782839775085,
                -0.12966659665107727
            ]
        ],
        "bias": [
            0.14732417464256287,
            -0.24978792667388916
        ]
    },
    "E006": {
        "weights": [
            [
                0.07303788512945175,
                0.05702359601855278,
                -0.04511621966958046,
                -0.17568206787109375,
                0.21613004803657532
            ],
            [
                -0.25641122460365295,
                0.11180675029754639,
                -0.03777530416846275,
                -0.10476336628198624,
                -0.06206464022397995
            ]
        ],
        "bias": [
            -0.07396358251571655,
            -0.2390076220035553
        ]
    },
    "E087": {
        "weights": [
            [
                0.32478711009025574,
                0.13209731876850128,
                -0.003927564714103937,
                -0.05061451718211174,
                0.12749314308166504
            ],
            [
                -0.1950332671403885,
                -0.06609315425157547,
                0.012012729421257973,
                -0.03075670823454857,
                -0.2117927372455597
            ]
        ],
        "bias": [
            0.42406803369522095,
            -0.20249994099140167
        ]
    },
    "E122": {
        "weights": [
            [
                0.18014220893383026,
                0.09207004308700562,
                -0.03188067302107811,
                0.1562233418226242,
                0.1534014344215393
            ],
            [
                -0.1249127984046936,
                0.1441427618265152,
                0.03235531970858574,
                0.18994925916194916,
                -0.15061284601688385
            ]
        ],
        "bias": [
            0.10461703687906265,
            -0.06288809329271317
        ]
    },
    "E047": {
        "weights": [
            [
                0.24904386699199677,
                -0.04221725836396217,
                -0.07204820215702057,
                -0.013382951728999615,
                0.08211658895015717
            ],
            [
                -0.423654705286026,
                0.0287625752389431,
                0.009295010939240456,
                0.03871939331293106,
                0.008673479780554771
            ]
        ],
        "bias": [
            0.0497838594019413,
            -0.1038760393857956
        ]
    },
    "E106": {
        "weights": [
            [
                0.13655948638916016,
                -0.09578169882297516,
                -0.003738007042557001,
                0.08743482083082199,
                0.11432777345180511
            ],
            [
                -0.17518241703510284,
                -0.0614725723862648,
                0.013344344682991505,
                0.13962902128696442,
                -0.274325430393219
            ]
        ],
        "bias": [
            0.016560370102524757,
            -0.13241738080978394
        ]
    },
    "E104": {
        "weights": [
            [
                0.36271727085113525,
                -0.07539401948451996,
                -0.18026316165924072,
                -0.07161954790353775,
                0.19624167680740356
            ],
            [
                -0.2997898459434509,
                -0.07009972631931305,
                -0.07727859914302826,
                -0.03816041350364685,
                -0.0034578845370560884
            ]
        ],
        "bias": [
            0.009861394762992859,
            -0.14271068572998047
        ]
    },
    "E024": {
        "weights": [
            [
                0.22248487174510956,
                -0.046493686735630035,
                0.03586381673812866,
                0.004272937774658203,
                -0.088077113032341
            ],
            [
                -0.11233613640069962,
                0.06017544865608215,
                0.08853834867477417,
                0.018357276916503906,
                -0.1303541362285614
            ]
        ],
        "bias": [
            0.10108399391174316,
            -0.19033460319042206
        ]
    },
    "E061": {
        "weights": [
            [
                0.2596983313560486,
                -0.11102775484323502,
                -0.09259571135044098,
                -0.038720838725566864,
                0.2535336911678314
            ],
            [
                -0.1925140619277954,
                -0.06870222836732864,
                -0.033584337681531906,
                -0.022400911897420883,
                0.07831838726997375
            ]
        ],
        "bias": [
            0.2735213339328766,
            -0.009387107565999031
        ]
    },
    "E085": {
        "weights": [
            [
                0.12151159346103668,
                0.03738253191113472,
                -0.05652017146348953,
                -0.07112814486026764,
                0.1772746592760086
            ],
            [
                -0.13939400017261505,
                0.05516764521598816,
                -0.03899553790688515,
                -0.06635404378175735,
                0.019269481301307678
            ]
        ],
        "bias": [
            0.20461192727088928,
            -0.051366616040468216
        ]
    },
    "E120": {
        "weights": [
            [
                0.312691867351532,
                0.0566449835896492,
                -0.0058125220239162445,
                0.006633108947426081,
                0.19056899845600128
            ],
            [
                -0.3247060775756836,
                0.16226999461650848,
                0.000878107559401542,
                0.05129499360918999,
                -0.10334427654743195
            ]
        ],
        "bias": [
            -0.0892682820558548,
            -0.1043163388967514
        ]
    },
    "ave_stats": {
        "ave weights": [
            [
                0.22125578217674047,
                -0.013313390368628981,
                -0.00490864396644091,
                -0.04680934263160452,
                0.10988127140028935
            ],
            [
                -0.23296248437171535,
                0.04080458393270549,
                0.023016295534034725,
                0.007484627885008065,
                -0.12447573738921035
            ]
        ],
        "ave bias": [
            0.1489141439129266,
            -0.14963401155546308
        ]
    }
}